digraph Tree {
node [shape=box, style="filled, rounded", color="black", fontname=helvetica] ;
edge [fontname=helvetica] ;
0 [label=<satisfaction_level &le; 0.465<br/>gini = 0.5<br/>samples = 11999<br/>value = [5999.5, 5999.5]<br/>class = left>, fillcolor="#ffffff"] ;
1 [label=<time_spend_company &le; 4.5<br/>gini = 0.281<br/>samples = 3333<br/>value = [866.231, 4260.514]<br/>class = left>, fillcolor="#61b1ea"] ;
0 -> 1 [labeldistance=2.5, labelangle=45, headlabel="True"] ;
2 [label=<time_spend_company &le; 2.5<br/>gini = 0.204<br/>samples = 2718<br/>value = [527.328, 4054.805]<br/>class = left>, fillcolor="#53aae8"] ;
1 -> 2 ;
3 [label=<satisfaction_level &le; 0.14<br/>gini = 0.309<br/>samples = 221<br/>value = [134.776, 31.811]<br/>class = no left>, fillcolor="#eb9f68"] ;
2 -> 3 ;
4 [label=<gini = 0.318<br/>samples = 9<br/>value = [2.617, 10.604]<br/>class = left>, fillcolor="#6ab5eb"] ;
3 -> 4 ;
5 [label=<average_montly_hours &le; 236.5<br/>gini = 0.238<br/>samples = 212<br/>value = [132.159, 21.207]<br/>class = no left>, fillcolor="#e99559"] ;
3 -> 5 ;
6 [label=<gini = 0.103<br/>samples = 172<br/>value = [110.569, 6.362]<br/>class = no left>, fillcolor="#e68844"] ;
5 -> 6 ;
7 [label=<gini = 0.483<br/>samples = 40<br/>value = [21.59, 14.845]<br/>class = no left>, fillcolor="#f7d8c1"] ;
5 -> 7 ;
8 [label=<average_montly_hours &le; 125.5<br/>gini = 0.162<br/>samples = 2497<br/>value = [392.552, 4022.995]<br/>class = left>, fillcolor="#4ca7e8"] ;
2 -> 8 ;
9 [label=<gini = 0.0<br/>samples = 79<br/>value = [51.686, 0.0]<br/>class = no left>, fillcolor="#e58139"] ;
8 -> 9 ;
10 [label=<last_evaluation &le; 0.445<br/>gini = 0.144<br/>samples = 2418<br/>value = [340.866, 4022.995]<br/>class = left>, fillcolor="#4aa5e7"] ;
8 -> 10 ;
11 [label=<gini = 0.0<br/>samples = 60<br/>value = [39.255, 0.0]<br/>class = no left>, fillcolor="#e58139"] ;
10 -> 11 ;
12 [label=<gini = 0.13<br/>samples = 2358<br/>value = [301.611, 4022.995]<br/>class = left>, fillcolor="#48a4e7"] ;
10 -> 12 ;
13 [label=<satisfaction_level &le; 0.115<br/>gini = 0.47<br/>samples = 615<br/>value = [338.903, 205.709]<br/>class = no left>, fillcolor="#f5cdb1"] ;
1 -> 13 ;
14 [label=<gini = 0.0<br/>samples = 67<br/>value = [0.0, 142.088]<br/>class = left>, fillcolor="#399de5"] ;
13 -> 14 ;
15 [label=<number_project &le; 6.5<br/>gini = 0.266<br/>samples = 548<br/>value = [338.903, 63.621]<br/>class = no left>, fillcolor="#ea995e"] ;
13 -> 15 ;
16 [label=<satisfaction_level &le; 0.295<br/>gini = 0.234<br/>samples = 543<br/>value = [338.903, 53.018]<br/>class = no left>, fillcolor="#e99558"] ;
15 -> 16 ;
17 [label=<gini = 0.092<br/>samples = 389<br/>value = [250.579, 12.724]<br/>class = no left>, fillcolor="#e68743"] ;
16 -> 17 ;
18 [label=<gini = 0.43<br/>samples = 154<br/>value = [88.324, 40.294]<br/>class = no left>, fillcolor="#f1ba93"] ;
16 -> 18 ;
19 [label=<gini = -0.0<br/>samples = 5<br/>value = [0.0, 10.604]<br/>class = left>, fillcolor="#399de5"] ;
15 -> 19 ;
20 [label=<time_spend_company &le; 4.5<br/>gini = 0.378<br/>samples = 8666<br/>value = [5133.269, 1738.986]<br/>class = no left>, fillcolor="#eeac7c"] ;
0 -> 20 [labeldistance=2.5, labelangle=-45, headlabel="False"] ;
21 [label=<number_project &le; 5.5<br/>gini = 0.084<br/>samples = 7097<br/>value = [4578.462, 209.951]<br/>class = no left>, fillcolor="#e68742"] ;
20 -> 21 ;
22 [label=<average_montly_hours &le; 290.5<br/>gini = 0.071<br/>samples = 6966<br/>value = [4504.532, 171.778]<br/>class = no left>, fillcolor="#e68641"] ;
21 -> 22 ;
23 [label=<time_spend_company &le; 3.5<br/>gini = 0.068<br/>samples = 6962<br/>value = [4504.532, 163.295]<br/>class = no left>, fillcolor="#e68640"] ;
22 -> 23 ;
24 [label=<gini = 0.045<br/>samples = 5927<br/>value = [3849.625, 91.191]<br/>class = no left>, fillcolor="#e6843e"] ;
23 -> 24 ;
25 [label=<gini = 0.179<br/>samples = 1035<br/>value = [654.907, 72.104]<br/>class = no left>, fillcolor="#e88f4f"] ;
23 -> 25 ;
26 [label=<gini = -0.0<br/>samples = 4<br/>value = [0.0, 8.483]<br/>class = left>, fillcolor="#399de5"] ;
22 -> 26 ;
27 [label=<number_project &le; 6.5<br/>gini = 0.449<br/>samples = 131<br/>value = [73.931, 38.173]<br/>class = no left>, fillcolor="#f2c29f"] ;
21 -> 27 ;
28 [label=<last_evaluation &le; 0.625<br/>gini = 0.409<br/>samples = 127<br/>value = [73.931, 29.69]<br/>class = no left>, fillcolor="#efb489"] ;
27 -> 28 ;
29 [label=<gini = 0.0<br/>samples = 53<br/>value = [34.675, 0.0]<br/>class = no left>, fillcolor="#e58139"] ;
28 -> 29 ;
30 [label=<gini = 0.49<br/>samples = 74<br/>value = [39.255, 29.69]<br/>class = no left>, fillcolor="#f9e0cf"] ;
28 -> 30 ;
31 [label=<gini = 0.0<br/>samples = 4<br/>value = [0.0, 8.483]<br/>class = left>, fillcolor="#399de5"] ;
27 -> 31 ;
32 [label=<last_evaluation &le; 0.805<br/>gini = 0.391<br/>samples = 1569<br/>value = [554.807, 1529.035]<br/>class = left>, fillcolor="#81c1ee"] ;
20 -> 32 ;
33 [label=<average_montly_hours &le; 272.5<br/>gini = 0.209<br/>samples = 602<br/>value = [378.158, 50.897]<br/>class = no left>, fillcolor="#e89254"] ;
32 -> 33 ;
34 [label=<gini = 0.165<br/>samples = 570<br/>value = [361.802, 36.052]<br/>class = no left>, fillcolor="#e88e4d"] ;
33 -> 34 ;
35 [label=<satisfaction_level &le; 0.575<br/>gini = 0.499<br/>samples = 32<br/>value = [16.356, 14.845]<br/>class = no left>, fillcolor="#fdf3ed"] ;
33 -> 35 ;
36 [label=<gini = 0.385<br/>samples = 15<br/>value = [5.234, 14.845]<br/>class = left>, fillcolor="#7fc0ee"] ;
35 -> 36 ;
37 [label=<gini = 0.0<br/>samples = 17<br/>value = [11.122, 0.0]<br/>class = no left>, fillcolor="#e58139"] ;
35 -> 37 ;
38 [label=<time_spend_company &le; 6.5<br/>gini = 0.191<br/>samples = 967<br/>value = [176.648, 1478.138]<br/>class = left>, fillcolor="#51a9e8"] ;
32 -> 38 ;
39 [label=<average_montly_hours &le; 215.5<br/>gini = 0.11<br/>samples = 837<br/>value = [91.595, 1478.138]<br/>class = left>, fillcolor="#45a3e7"] ;
38 -> 39 ;
40 [label=<gini = 0.452<br/>samples = 86<br/>value = [48.415, 25.449]<br/>class = no left>, fillcolor="#f3c3a1"] ;
39 -> 40 ;
41 [label=<gini = 0.056<br/>samples = 751<br/>value = [43.181, 1452.689]<br/>class = left>, fillcolor="#3fa0e6"] ;
39 -> 41 ;
42 [label=<gini = -0.0<br/>samples = 130<br/>value = [85.053, 0.0]<br/>class = no left>, fillcolor="#e58139"] ;
38 -> 42 ;
}